Language model created by QuickLM on Sat Jan 21 04:31:46 EST 2017
Copyright (c) 1996-2010 Carnegie Mellon University and Alexander I. Rudnicky

The model is in standard ARPA format, designed by Doug Paul while he was at MITRE.

The code that was used to produce this language model is available in Open Source.
Please visit http://www.speech.cs.cmu.edu/tools/ for more information

The (fixed) discount mass is 0.5. The backoffs are computed using the ratio method.
This model based on a corpus of 3 sentences and 12 words

\data\
ngram 1=12
ngram 2=14
ngram 3=11

\1-grams:
-1.0544 </s> -0.3010
-1.0544 <s> -0.2609
-1.5315 A -0.2881
-1.2304 IS -0.2747
-1.5315 OKAY -0.2881
-1.5315 PHRASE -0.2609
-1.5315 PI -0.2609
-1.5315 TEST -0.2881
-1.5315 THE -0.2881
-1.5315 THIS -0.2747
-1.5315 TIME -0.2609
-1.5315 WHAT -0.2747

\2-grams:
-0.7782 <s> OKAY 0.0000
-0.7782 <s> THIS 0.0000
-0.7782 <s> WHAT 0.0000
-0.3010 A TEST 0.0000
-0.6021 IS A 0.0000
-0.6021 IS THE 0.0000
-0.3010 OKAY PI 0.0000
-0.3010 PHRASE </s> -0.3010
-0.3010 PI </s> -0.3010
-0.3010 TEST PHRASE 0.0000
-0.3010 THE TIME 0.0000
-0.3010 THIS IS -0.1761
-0.3010 TIME </s> -0.3010
-0.3010 WHAT IS -0.1761

\3-grams:
-0.3010 <s> OKAY PI
-0.3010 <s> THIS IS
-0.3010 <s> WHAT IS
-0.3010 A TEST PHRASE
-0.3010 IS A TEST
-0.3010 IS THE TIME
-0.3010 OKAY PI </s>
-0.3010 TEST PHRASE </s>
-0.3010 THE TIME </s>
-0.3010 THIS IS A
-0.3010 WHAT IS THE

\end\
